[{"inputs": [0.24636514382801455, 0, 0, 0.009707329220007499, 0.48750607774872234], "outputs": [0, 1, 1, 1, 1, 0], "biases": [0.4434297790363338, -0.22674914195922383, 0.06724485224048263, -0.08198026151568423, 0.009579109427333157, -0.21160107561875172], "weights": [[0.13495206984477526, 0.2787513901524937, 0.4227002519106037, 0.14167184032783872, 0.3353658955413109, -0.5757707348970892], [0.03741978068873483, -0.23533851415361806, -0.03355394641634822, 0.1099298304076671, 0.4525229666276652, 0.2784013113033928], [-0.15777835371603138, -0.17537174464535596, -0.5486065411059093, 0.09369968564193734, 0.06629586466560353, 0.06046073947275936], [0.1565981293775539, -0.110500345741785, 0.12013209417846052, -0.10081602831442577, -0.21673947710684816, 0.08508467707347561], [-0.3396118198574034, 0.28917147661928566, -0.0715717546481827, -0.23744483029303282, 0.3722934978176054, -0.19661219926420717]]}, {"inputs": [0, 1, 1, 1, 1, 0], "outputs": [1, 0, 1, 0], "biases": [-0.3130785895669129, -0.19563337500631436, -0.06497855587236141, 0.16343083542284143], "weights": [[0.010854705183991578, -0.20330715248624198, 0.25002969220397053, -0.6325015564534208], [-0.12208940601458745, -0.14458363374527985, 0.27219294542164374, 0.10174910971324258], [0.23951744169684314, 0.0003751082097063381, -0.1975933406940092, -0.28723360796600655], [-0.16359551498111638, -0.21778011706400674, 0.4047002576944808, 0.18412079100324247], [0.032368170074395144, -0.14573107968536425, -0.4091269382034103, 0.0003220506120508839], [0.37330695707053163, 0.12814195071120427, 0.02395412238336176, -0.03014304924360109]]}]