[{"inputs": [0.36360389693210726, 0, 0, 0, 0.36360389693210726], "outputs": [0, 1, 0, 0, 0, 0], "biases": [0.9790965566706118, -0.6672801295840335, 0.09482190188795495, 0.36661580279628514, 0.5807566879234813, 0.6090417446479063], "weights": [[0.38759372802286335, 0.5217126585409975, -0.5560527731743763, 0.026010794531192843, 0.37997391230492966, -0.4429051652909283], [-0.34760199724773233, 0.3781083449890516, -0.47217188971507545, 0.5334048502504262, 0.5764357919107426, -0.7483326546241851], [-0.11210669611849773, 0.08938241816194367, 0.13156197090025384, 0.6116997175494983, -0.11475650828503337, -0.39408963414175124], [0.4797720724374225, 0.08020837535981057, -0.10173614743028653, 0.804652104202791, -0.41185983542064364, 0.2381986876542249], [0.7821124224073096, -0.14834363244787918, -0.23191153506107787, -0.4810009655563797, 0.021376386782225226, -0.31930399033754003]]}, {"inputs": [0, 1, 0, 0, 0, 0], "outputs": [0, 1, 0, 0], "biases": [-0.4560164054139688, -0.5643586557336897, 0.3553747555979905, 0.08407833221422281], "weights": [[-0.56245379707306, 0.010242151838783353, 0.11453909830164669, -0.09308207890026879], [-0.8546452095321075, -0.44973615816965573, 0.18234538597684397, -0.5407872493936976], [0.45366858297255674, -0.7816531922020088, 0.33505138445453514, -0.23078920879859804], [-0.13215180034831844, -0.006392717923916658, 0.2603106442989967, -0.7693436275784195], [-0.1705279705109431, -0.5715719577139036, 0.5082230524698748, 0.30909327722989416], [-0.22423663616076622, -0.005489884966020292, 0.6648734067588461, 0.26796397947707756]]}]