[{"inputs": [0.36360389693210726, 0, 0, 0, 0.36360389693210726], "outputs": [1, 1, 1, 1, 0, 0], "biases": [-0.40614624449039627, 0.3695541572977168, -0.8326108599928415, -0.9888215498110908, 0.4661832994361168, 0.6808050947847453], "weights": [[-0.4069975045572718, 0.8666004620698753, 0.337466294433568, 0.4912671754333704, 0.6763837573131497, -0.2674697662433889], [-0.596691600857324, 0.7008062422139203, 0.7926239680760594, 0.08855390702878907, -0.7865235817942353, -0.2595202364035689], [-0.9992086166028653, 0.8514230986996203, 0.7316300269920124, 0.9484869828447864, 0.01278085975138521, 0.5146626335449922], [-0.2711986333505496, -0.7518246828264967, 0.5535012755251789, -0.5685534647236901, 0.681065356132482, 0.8547401115870192], [0.9795229923517683, 0.8617824625120982, -0.8969541348289087, 0.8712624858398053, -0.06315461081690832, -0.7987104516746493]]}, {"inputs": [1, 1, 1, 1, 0, 0], "outputs": [0, 0, 0, 0], "biases": [0.4544455469982609, 0.46981044453101206, -0.24386050817994098, 0.2366735428103166], "weights": [[-0.4492506634084765, 0.2348899941628786, 0.811127979400853, -0.1415771121413265], [0.026379015057612643, 0.42383123752655316, -0.7174777634484366, -0.858674975730934], [-0.06942810185068016, -0.008730183463243613, -0.08275315975810593, 0.3595245661646853], [0.17508734674438986, -0.36101531993560365, -0.4990156073880212, 0.30008317522841965], [0.08221205337409287, 0.27932334686087446, -0.4817589244579181, 0.527428021818362], [0.20095922801282295, -0.44627503026246695, 0.6767413200647467, -0.5945807911412089]]}]