[{"inputs": [0.36360389693210726, 0, 0, 0, 0.36360389693210726], "outputs": [0, 0, 1, 0, 1, 0], "biases": [-0.3211884569545733, 0.2952408647144835, -0.10419531219496436, 0.7077329893238524, -0.05673695156478398, 0.7327614853673587], "weights": [[-0.7961008649573047, -0.619726712173458, 0.6242209272895531, -0.13429708662027284, -0.5010944015742511, -0.51004475603853], [0.3528791107885696, 0.6004861289985048, -0.3639759036003638, 0.8266045016501797, 0.92335111685797, 0.17839225704020611], [0.7292581323454741, 0.04006288333342978, 0.4756614375514059, -0.009298195870808046, 0.797627365514165, 0.5348865939856124], [0.902878407361005, 0.7826415018291142, 0.6374626764101401, 0.7743396676486474, -0.6788895753601583, 0.45891970906043045], [-0.47158956985052836, 0.6097196933917637, -0.561870367969211, 0.992681290446106, 0.6324770999146538, 0.39994287337242085]]}, {"inputs": [0, 0, 1, 0, 1, 0], "outputs": [0, 1, 1, 0], "biases": [-0.6860066539291974, 0.6140425933560762, 0.2672842276767424, -0.8866244837463553], "weights": [[-0.9445299078084619, 0.2551362545650224, -0.9381797364494535, 0.12918735432031836], [-0.12309280417258983, 0.48898879329934464, 0.5597584605103672, -0.5796773828845114], [-0.9876596053921161, 0.979665856565453, -0.16239587647795184, -0.49314095937414715], [0.4460732066810613, 0.90278434501693, -0.4867601400640096, -0.5951506695409774], [0.10532622556432103, 0.8206837602118957, 0.9810419052109591, -0.5883220763189856], [0.9320972940723917, -0.16587975985008452, -0.46086878518760344, -0.1220338562657477]]}]